Language model created by QuickLM on Thu Feb 14 17:43:11 EST 2013
Copyright (c) 1996-2010 Carnegie Mellon University and Alexander I. Rudnicky

The model is in standard ARPA format, designed by Doug Paul while he was at MITRE.

The code that was used to produce this language model is available in Open Source.
Please visit http://www.speech.cs.cmu.edu/tools/ for more information

The (fixed) discount mass is 0.5. The backoffs are computed using the ratio method.
This model based on a corpus of 151 sentences and 159 words

\data\
ngram 1=159
ngram 2=323
ngram 3=315

\1-grams:
-2.8639 3 -0.3004
-3.1649 911 -0.2537
-0.9860 </s> -0.3010
-0.9860 <s> -0.2450
-2.3868 A -0.2514
-2.1649 ACTIVATE -0.2969
-3.1649 ADMINISTRATOR -0.2537
-3.1649 AFFIRMATIVE -0.2537
-2.3868 ALARM -0.2537
-2.5629 ALERT -0.2537
-2.5629 ALL -0.2950
-2.8639 ALPHA -0.3004
-2.8639 ANYONE -0.2998
-2.4660 ARE -0.2989
-2.8639 AUTHORIZATION -0.3004
-3.1649 B -0.2537
-3.1649 BACKSPACE -0.2537
-3.1649 BAY -0.3007
-3.1649 C -0.2537
-2.6878 CALL -0.3001
-2.8639 CAMERAS -0.2537
-3.1649 CANCEL -0.2537
-2.3868 CHECK -0.2467
-3.1649 CHROME -0.2537
-3.1649 CLICK -0.2537
-3.1649 CLOSE -0.2537
-2.8639 COMMANDS -0.2537
-1.5522 COMPUTER -0.2210
-3.1649 COPY -0.2537
-3.1649 CUT -0.2537
-3.1649 D -0.2537
-2.6878 DEACTIVATE -0.3001
-3.1649 DEACTIVE -0.2998
-3.1649 DENIED -0.2537
-2.8639 DESTROY -0.2537
-2.8639 DIAGNOSTICS -0.2537
-2.8639 DISTRESS -0.3004
-2.8639 DO -0.2992
-2.8639 DON'T -0.2998
-3.1649 DOORS -0.3007
-3.1649 E -0.2537
-1.4407 ELRIC -0.2189
-3.1649 ENTER -0.2537
-2.8639 FAN -0.2537
-2.8639 FIREFOX -0.2537
-2.8639 FLOW -0.2998
-2.8639 FOOTAGE -0.2537
-2.6878 FOUR -0.2527
-3.1649 FOURSQUARE -0.2537
-2.8639 FULL -0.3004
-3.1649 G -0.2537
-3.1649 GOOD -0.3007
-3.1649 GOOGLE -0.2537
-3.1649 H -0.2537
-3.1649 HAL -0.2537
-3.1649 HIBERNATE -0.2537
-2.5629 HOME -0.2537
-3.1649 HOUSE -0.2537
-2.4660 HOW -0.2995
-2.8639 I -0.3004
-2.5629 I'M -0.2992
-2.8639 IDENTIFY -0.3004
-2.6878 IN -0.2941
-2.5629 INSIDE -0.2537
-3.1649 INTRUDER -0.2998
-2.8639 INVERSE -0.2956
-2.3868 IS -0.2938
-3.1649 J -0.2537
-2.8639 JANEWAY -0.2537
-3.1649 K -0.2537
-3.1649 L -0.2537
-2.8639 LEAVING -0.2537
-3.1649 LEFT -0.2537
-2.8639 LEVEL -0.3004
-2.8639 LIGHT -0.2537
-2.4660 LIGHTS -0.2537
-2.8639 LOUD -0.2537
-3.1649 M -0.2537
-2.8639 MAKE -0.3004
-2.4660 MANY -0.2995
-2.8639 ME -0.2537
-3.1649 MORNING -0.2850
-2.8639 MOTHER -0.2537
-2.8639 MUSIC -0.2537
-2.8639 MUTE -0.2537
-2.8639 MY -0.3004
-3.1649 N -0.2537
-2.8639 NEUTRINOS -0.2537
-3.1649 NEW -0.2537
-3.1649 NO -0.2537
-2.8639 NOISE -0.2537
-3.1649 NOTEPAD -0.2537
-3.1649 NOTIFY -0.3007
-3.1649 O -0.2537
-2.5629 OF -0.2956
-2.8639 OMEGA -0.3004
-2.4660 ON -0.2935
-3.1649 OPEN -0.2956
-2.8639 OUT -0.3004
-3.1649 P -0.2537
-3.1649 PASTE -0.2537
-2.8639 PAUSE -0.2537
-2.5629 PEOPLE -0.2995
-2.8639 PERFORM -0.2992
-3.1649 PERSONS -0.2995
-2.5629 PLAY -0.2510
-3.1649 POD -0.3007
-2.8639 POLARITY -0.2537
-3.1649 PRESENT -0.2537
-3.1649 Q -0.2537
-3.1649 R -0.2537
-2.8639 RECORDINGS -0.2537
-2.8639 RED -0.2998
-2.5629 RESPOND -0.2530
-3.1649 RIGHT -0.2537
-3.1649 RIGHTCLICK -0.2537
-3.1649 S -0.2537
-3.1649 SAVE -0.2537
-2.8639 SCREENSAVER -0.2537
-2.8639 SECURITY -0.3004
-2.8639 SEND -0.3004
-2.8639 SHOW -0.3004
-2.8639 SIGNAL -0.2537
-2.8639 SILENCE -0.2537
-2.8639 SMALL -0.3004
-2.6878 SOUND -0.2477
-2.6878 SQUARE -0.2537
-2.8639 STATUS -0.2998
-2.4660 STOP -0.2504
-3.1649 STORM -0.2537
-2.8639 STORMWIND -0.2537
-2.8639 SYSTEM -0.2992
-2.6878 T -0.2527
-3.1649 TAB -0.2537
-2.8639 TELEVISION -0.2537
-3.1649 TERMINAL -0.2537
-1.9097 THE -0.2941
-2.8639 THERE -0.2527
-2.8639 THIRTEEN -0.2537
-3.1649 THIS -0.3004
-2.8639 THREATS -0.2537
-2.8639 TO -0.3004
-2.6878 TURN -0.2995
-3.1649 U -0.2537
-2.5629 UP -0.2881
-2.8639 UPLOAD -0.3004
-2.6878 V -0.2537
-2.8639 VOICE -0.3004
-3.1649 W -0.2537
-2.5629 WAKE -0.2998
-2.8639 WELL -0.3004
-2.8639 WHAT -0.2992
-2.8639 WHO -0.2992
-3.1649 WIND -0.2537
-3.1649 WINDOWS -0.2537
-3.1649 X -0.2537
-3.1649 Y -0.2537
-3.1649 YES -0.2537
-3.1649 Z -0.2537

\2-grams:
-0.3010 3 DIAGNOSTICS 0.0000
-0.3010 911 </s> -0.3010
-2.4800 <s> A -0.2632
-2.4800 <s> AFFIRMATIVE 0.0000
-2.4800 <s> ALERT 0.0000
-2.4800 <s> B 0.0000
-2.4800 <s> BACKSPACE 0.0000
-2.4800 <s> C 0.0000
-2.4800 <s> CANCEL 0.0000
-2.4800 <s> CHROME 0.0000
-2.4800 <s> CLICK 0.0000
-2.4800 <s> CLOSE 0.0000
-0.8889 <s> COMPUTER -0.0207
-2.4800 <s> COPY 0.0000
-2.4800 <s> CUT 0.0000
-2.4800 <s> D 0.0000
-2.4800 <s> DENIED 0.0000
-2.4800 <s> E 0.0000
-0.7640 <s> ELRIC 0.0000
-2.4800 <s> ENTER 0.0000
-2.1790 <s> FIREFOX 0.0000
-2.4800 <s> FOUR -0.2218
-2.4800 <s> FOURSQUARE 0.0000
-2.4800 <s> G 0.0000
-2.4800 <s> GOOD 0.0000
-2.4800 <s> GOOGLE 0.0000
-2.4800 <s> H 0.0000
-2.4800 <s> HIBERNATE 0.0000
-2.4800 <s> J 0.0000
-2.4800 <s> K 0.0000
-2.4800 <s> L 0.0000
-2.4800 <s> LEFT 0.0000
-2.4800 <s> M 0.0000
-2.4800 <s> N 0.0000
-2.4800 <s> NEW 0.0000
-2.4800 <s> NO 0.0000
-2.4800 <s> NOTEPAD 0.0000
-2.4800 <s> O 0.0000
-2.4800 <s> OPEN 0.0000
-2.4800 <s> P 0.0000
-2.4800 <s> PASTE 0.0000
-2.4800 <s> PLAY -0.2430
-2.4800 <s> Q 0.0000
-2.4800 <s> R 0.0000
-2.4800 <s> RIGHT 0.0000
-2.4800 <s> RIGHTCLICK 0.0000
-2.4800 <s> S 0.0000
-2.4800 <s> SAVE 0.0000
-2.4800 <s> SQUARE 0.0000
-2.4800 <s> STOP -0.2553
-2.4800 <s> STORM 0.0000
-2.4800 <s> T -0.2218
-2.4800 <s> TAB 0.0000
-2.4800 <s> TERMINAL 0.0000
-2.4800 <s> U 0.0000
-2.4800 <s> V 0.0000
-2.4800 <s> W 0.0000
-2.4800 <s> WIND 0.0000
-2.4800 <s> WINDOWS 0.0000
-2.4800 <s> X 0.0000
-2.4800 <s> Y 0.0000
-2.4800 <s> YES 0.0000
-2.4800 <s> Z 0.0000
-1.0792 A </s> -0.3010
-0.7782 A FULL 0.0000
-0.7782 A LEVEL 0.0000
-1.0792 A SOUND -0.2218
-1.0000 ACTIVATE LIGHTS 0.0000
-1.0000 ACTIVATE SCREENSAVER 0.0000
-1.0000 ACTIVATE SMALL 0.0000
-1.0000 ACTIVATE T -0.1249
-1.0000 ACTIVATE TELEVISION 0.0000
-0.3010 ADMINISTRATOR </s> -0.3010
-0.3010 AFFIRMATIVE </s> -0.3010
-0.3010 ALARM </s> -0.3010
-0.3010 ALERT </s> -0.3010
-0.6021 ALL RECORDINGS 0.0000
-0.6021 ALL THE -0.2632
-0.3010 ALPHA OMEGA 0.0000
-0.3010 ANYONE HOME 0.0000
-0.6990 ARE INSIDE 0.0000
-1.0000 ARE PRESENT 0.0000
-0.6990 ARE THERE 0.0000
-0.3010 AUTHORIZATION ALPHA 0.0000
-0.3010 B </s> -0.3010
-0.3010 BACKSPACE </s> -0.3010
-0.3010 BAY DOORS 0.0000
-0.3010 C </s> -0.3010
-0.7782 CALL 911 0.0000
-0.4771 CALL MY 0.0000
-0.3010 CAMERAS </s> -0.3010
-0.3010 CANCEL </s> -0.3010
-0.7782 CHECK </s> -0.3010
-0.7782 CHECK IN -0.1249
-0.7782 CHECK THE -0.2762
-0.3010 CHROME </s> -0.3010
-0.3010 CLICK </s> -0.3010
-0.3010 CLOSE </s> -0.3010
-0.3010 COMMANDS </s> -0.3010
-1.6128 COMPUTER </s> -0.3010
-1.2148 COMPUTER ACTIVATE 0.0000
-1.9138 COMPUTER AUTHORIZATION 0.0000
-1.9138 COMPUTER CALL -0.1249
-1.6128 COMPUTER CHECK -0.1249
-1.9138 COMPUTER DEACTIVATE -0.1249
-1.9138 COMPUTER DESTROY 0.0000
-1.9138 COMPUTER DO 0.0000
-1.9138 COMPUTER HOW 0.0000
-1.9138 COMPUTER I 0.0000
-1.6128 COMPUTER I'M 0.0000
-1.9138 COMPUTER IDENTIFY 0.0000
-1.9138 COMPUTER INVERSE 0.0000
-1.9138 COMPUTER IS -0.2218
-1.9138 COMPUTER JANEWAY 0.0000
-1.9138 COMPUTER LOUD 0.0000
-1.9138 COMPUTER MAKE 0.0000
-1.9138 COMPUTER MUTE 0.0000
-1.9138 COMPUTER PAUSE 0.0000
-1.9138 COMPUTER PERFORM 0.0000
-1.9138 COMPUTER PLAY -0.1761
-1.9138 COMPUTER RED 0.0000
-1.9138 COMPUTER RESPOND -0.1761
-1.9138 COMPUTER SEND 0.0000
-1.9138 COMPUTER SHOW 0.0000
-1.9138 COMPUTER SILENCE 0.0000
-1.9138 COMPUTER SOUND -0.1249
-1.6128 COMPUTER STOP -0.0792
-1.9138 COMPUTER UPLOAD 0.0000
-1.6128 COMPUTER WAKE 0.0000
-1.9138 COMPUTER WHAT 0.0000
-1.9138 COMPUTER WHO 0.0000
-0.3010 COPY </s> -0.3010
-0.3010 CUT </s> -0.3010
-0.3010 D </s> -0.3010
-0.7782 DEACTIVATE THIS 0.0000
-0.4771 DEACTIVATE VOICE 0.0000
-0.3010 DEACTIVE ALL -0.1761
-0.3010 DENIED </s> -0.3010
-0.3010 DESTROY </s> -0.3010
-0.3010 DIAGNOSTICS </s> -0.3010
-0.3010 DISTRESS SIGNAL 0.0000
-0.3010 DO A -0.2218
-0.3010 DON'T RESPOND -0.1761
-0.3010 DOORS HAL 0.0000
-0.3010 E </s> -0.3010
-1.7243 ELRIC </s> -0.3010
-1.3263 ELRIC ACTIVATE 0.0000
-2.0253 ELRIC AUTHORIZATION 0.0000
-1.7243 ELRIC CALL 0.0000
-1.7243 ELRIC CHECK -0.1249
-1.7243 ELRIC DEACTIVATE 0.0000
-2.0253 ELRIC DEACTIVE 0.0000
-2.0253 ELRIC DESTROY 0.0000
-2.0253 ELRIC DO 0.0000
-1.4232 ELRIC HOW 0.0000
-2.0253 ELRIC I 0.0000
-1.7243 ELRIC I'M 0.0000
-2.0253 ELRIC IDENTIFY 0.0000
-2.0253 ELRIC INTRUDER 0.0000
-2.0253 ELRIC INVERSE 0.0000
-2.0253 ELRIC IS -0.2218
-2.0253 ELRIC JANEWAY 0.0000
-2.0253 ELRIC LOUD 0.0000
-2.0253 ELRIC MAKE 0.0000
-2.0253 ELRIC MUTE 0.0000
-2.0253 ELRIC NOTIFY 0.0000
-2.0253 ELRIC PAUSE 0.0000
-2.0253 ELRIC PERFORM 0.0000
-1.7243 ELRIC PLAY -0.0969
-2.0253 ELRIC RED 0.0000
-2.0253 ELRIC RESPOND -0.1761
-2.0253 ELRIC SEND 0.0000
-2.0253 ELRIC SHOW 0.0000
-2.0253 ELRIC SILENCE 0.0000
-2.0253 ELRIC SOUND -0.1249
-1.7243 ELRIC STOP -0.0792
-1.5482 ELRIC TURN 0.0000
-2.0253 ELRIC UPLOAD 0.0000
-1.7243 ELRIC WAKE 0.0000
-2.0253 ELRIC WHAT 0.0000
-2.0253 ELRIC WHO 0.0000
-0.3010 ENTER </s> -0.3010
-0.3010 FAN </s> -0.3010
-0.3010 FIREFOX </s> -0.3010
-0.3010 FLOW OF 0.0000
-0.3010 FOOTAGE </s> -0.3010
-0.7782 FOUR </s> -0.3010
-0.4771 FOUR SQUARE 0.0000
-0.3010 FOURSQUARE </s> -0.3010
-0.3010 FULL SYSTEM 0.0000
-0.3010 G </s> -0.3010
-0.3010 GOOD MORNING 0.0000
-0.3010 GOOGLE </s> -0.3010
-0.3010 H </s> -0.3010
-0.3010 HAL </s> -0.3010
-0.3010 HIBERNATE </s> -0.3010
-0.3010 HOME </s> -0.3010
-0.3010 HOUSE </s> -0.3010
-0.3010 HOW MANY 0.0000
-0.3010 I DON'T 0.0000
-0.6021 I'M HOME 0.0000
-0.6021 I'M LEAVING 0.0000
-0.3010 IDENTIFY ME 0.0000
-0.4771 IN ON -0.2041
-0.7782 IN THE -0.2888
-0.3010 INSIDE </s> -0.3010
-0.3010 INTRUDER ALERT 0.0000
-0.3010 INVERSE THE -0.2762
-0.7782 IS ANYONE 0.0000
-0.7782 IS INSIDE 0.0000
-0.7782 IS THE -0.2762
-0.3010 J </s> -0.3010
-0.3010 JANEWAY </s> -0.3010
-0.3010 K </s> -0.3010
-0.3010 L </s> -0.3010
-0.3010 LEAVING </s> -0.3010
-0.3010 LEFT </s> -0.3010
-0.3010 LEVEL 3 0.0000
-0.3010 LIGHT </s> -0.3010
-0.3010 LIGHTS </s> -0.3010
-0.3010 LOUD </s> -0.3010
-0.3010 M </s> -0.3010
-0.3010 MAKE NOISE 0.0000
-0.3979 MANY PEOPLE 0.0000
-1.0000 MANY PERSONS 0.0000
-0.3010 ME </s> -0.3010
-0.3010 MORNING ELRIC -0.2928
-0.3010 MOTHER </s> -0.3010
-0.3010 MUSIC </s> -0.3010
-0.3010 MUTE </s> -0.3010
-0.3010 MY MOTHER 0.0000
-0.3010 N </s> -0.3010
-0.3010 NEUTRINOS </s> -0.3010
-0.3010 NEW </s> -0.3010
-0.3010 NO </s> -0.3010
-0.3010 NOISE </s> -0.3010
-0.3010 NOTEPAD </s> -0.3010
-0.3010 NOTIFY ADMINISTRATOR 0.0000
-0.3010 O </s> -0.3010
-0.3010 OF THE -0.2218
-0.3010 OMEGA THIRTEEN 0.0000
-1.0000 ON ALL -0.1761
-0.6990 ON FOUR -0.1249
-0.6990 ON THE -0.2499
-0.3010 OPEN THE -0.2888
-0.3010 OUT DISTRESS 0.0000
-0.3010 P </s> -0.3010
-0.3010 PASTE </s> -0.3010
-0.3010 PAUSE </s> -0.3010
-0.3010 PEOPLE ARE 0.0000
-0.3010 PERFORM A -0.2218
-0.3010 PERSONS ARE -0.2041
-0.9031 PLAY </s> -0.3010
-0.9031 PLAY A -0.2632
-0.6021 PLAY MUSIC 0.0000
-0.3010 POD BAY 0.0000
-0.3010 POLARITY </s> -0.3010
-0.3010 PRESENT </s> -0.3010
-0.3010 Q </s> -0.3010
-0.3010 R </s> -0.3010
-0.3010 RECORDINGS </s> -0.3010
-0.3010 RED ALERT 0.0000
-0.6021 RESPOND </s> -0.3010
-0.6021 RESPOND WELL 0.0000
-0.3010 RIGHT </s> -0.3010
-0.3010 RIGHTCLICK </s> -0.3010
-0.3010 S </s> -0.3010
-0.3010 SAVE </s> -0.3010
-0.3010 SCREENSAVER </s> -0.3010
-0.3010 SECURITY FOOTAGE 0.0000
-0.3010 SEND OUT 0.0000
-0.3010 SHOW CAMERAS 0.0000
-0.3010 SIGNAL </s> -0.3010
-0.3010 SILENCE </s> -0.3010
-0.3010 SMALL FAN 0.0000
-0.7782 SOUND </s> -0.3010
-0.4771 SOUND THE -0.2499
-0.3010 SQUARE </s> -0.3010
-0.3010 STATUS OF 0.0000
-1.0000 STOP </s> -0.3010
-0.6990 STOP ALARM 0.0000
-0.6990 STOP ALL -0.1761
-0.3010 STORM </s> -0.3010
-0.3010 STORMWIND </s> -0.3010
-0.3010 SYSTEM CHECK -0.2218
-0.7782 T </s> -0.3010
-0.4771 T V 0.0000
-0.3010 TAB </s> -0.3010
-0.3010 TELEVISION </s> -0.3010
-0.3010 TERMINAL </s> -0.3010
-0.9542 THE ALARM 0.0000
-1.2553 THE FLOW 0.0000
-1.5563 THE HOUSE 0.0000
-1.5563 THE LIGHT 0.0000
-1.0792 THE LIGHTS 0.0000
-1.2553 THE NEUTRINOS 0.0000
-1.5563 THE POD 0.0000
-1.2553 THE POLARITY 0.0000
-1.2553 THE STATUS 0.0000
-0.6021 THERE </s> -0.3010
-0.6021 THERE IN -0.2218
-0.3010 THIRTEEN </s> -0.3010
-0.3010 THIS LIGHT 0.0000
-0.3010 THREATS </s> -0.3010
-0.3010 TO THREATS 0.0000
-0.3010 TURN ON -0.1461
-0.3010 U </s> -0.3010
-0.6021 UP COMPUTER -0.2903
-0.6021 UP STORMWIND 0.0000
-0.3010 UPLOAD SECURITY 0.0000
-0.3010 V </s> -0.3010
-0.3010 VOICE COMMANDS 0.0000
-0.3010 W </s> -0.3010
-0.3010 WAKE UP 0.0000
-0.3010 WELL TO 0.0000
-0.3010 WHAT IS -0.2218
-0.3010 WHO IS -0.2218
-0.3010 WIND </s> -0.3010
-0.3010 WINDOWS </s> -0.3010
-0.3010 X </s> -0.3010
-0.3010 Y </s> -0.3010
-0.3010 YES </s> -0.3010
-0.3010 Z </s> -0.3010

\3-grams:
-0.3010 3 DIAGNOSTICS </s>
-0.3010 <s> A </s>
-0.3010 <s> AFFIRMATIVE </s>
-0.3010 <s> ALERT </s>
-0.3010 <s> B </s>
-0.3010 <s> BACKSPACE </s>
-0.3010 <s> C </s>
-0.3010 <s> CANCEL </s>
-0.3010 <s> CHROME </s>
-0.3010 <s> CLICK </s>
-0.3010 <s> CLOSE </s>
-1.1931 <s> COMPUTER ACTIVATE
-1.8921 <s> COMPUTER AUTHORIZATION
-1.8921 <s> COMPUTER CALL
-1.5911 <s> COMPUTER CHECK
-1.8921 <s> COMPUTER DEACTIVATE
-1.8921 <s> COMPUTER DESTROY
-1.8921 <s> COMPUTER DO
-1.8921 <s> COMPUTER HOW
-1.8921 <s> COMPUTER I
-1.5911 <s> COMPUTER I'M
-1.8921 <s> COMPUTER IDENTIFY
-1.8921 <s> COMPUTER INVERSE
-1.8921 <s> COMPUTER IS
-1.8921 <s> COMPUTER JANEWAY
-1.8921 <s> COMPUTER LOUD
-1.8921 <s> COMPUTER MAKE
-1.8921 <s> COMPUTER MUTE
-1.8921 <s> COMPUTER PAUSE
-1.8921 <s> COMPUTER PERFORM
-1.8921 <s> COMPUTER PLAY
-1.8921 <s> COMPUTER RED
-1.8921 <s> COMPUTER RESPOND
-1.8921 <s> COMPUTER SEND
-1.8921 <s> COMPUTER SHOW
-1.8921 <s> COMPUTER SILENCE
-1.8921 <s> COMPUTER SOUND
-1.5911 <s> COMPUTER STOP
-1.8921 <s> COMPUTER UPLOAD
-1.5911 <s> COMPUTER WAKE
-1.8921 <s> COMPUTER WHAT
-1.8921 <s> COMPUTER WHO
-0.3010 <s> COPY </s>
-0.3010 <s> CUT </s>
-0.3010 <s> D </s>
-0.3010 <s> DENIED </s>
-0.3010 <s> E </s>
-2.0170 <s> ELRIC </s>
-1.3181 <s> ELRIC ACTIVATE
-2.0170 <s> ELRIC AUTHORIZATION
-1.7160 <s> ELRIC CALL
-1.7160 <s> ELRIC CHECK
-1.7160 <s> ELRIC DEACTIVATE
-2.0170 <s> ELRIC DEACTIVE
-2.0170 <s> ELRIC DESTROY
-2.0170 <s> ELRIC DO
-1.4150 <s> ELRIC HOW
-2.0170 <s> ELRIC I
-1.7160 <s> ELRIC I'M
-2.0170 <s> ELRIC IDENTIFY
-2.0170 <s> ELRIC INTRUDER
-2.0170 <s> ELRIC INVERSE
-2.0170 <s> ELRIC IS
-2.0170 <s> ELRIC JANEWAY
-2.0170 <s> ELRIC LOUD
-2.0170 <s> ELRIC MAKE
-2.0170 <s> ELRIC MUTE
-2.0170 <s> ELRIC NOTIFY
-2.0170 <s> ELRIC PAUSE
-2.0170 <s> ELRIC PERFORM
-1.7160 <s> ELRIC PLAY
-2.0170 <s> ELRIC RED
-2.0170 <s> ELRIC RESPOND
-2.0170 <s> ELRIC SEND
-2.0170 <s> ELRIC SHOW
-2.0170 <s> ELRIC SILENCE
-2.0170 <s> ELRIC SOUND
-1.7160 <s> ELRIC STOP
-1.5399 <s> ELRIC TURN
-2.0170 <s> ELRIC UPLOAD
-1.7160 <s> ELRIC WAKE
-2.0170 <s> ELRIC WHAT
-2.0170 <s> ELRIC WHO
-0.3010 <s> ENTER </s>
-0.3010 <s> FIREFOX </s>
-0.3010 <s> FOUR </s>
-0.3010 <s> FOURSQUARE </s>
-0.3010 <s> G </s>
-0.3010 <s> GOOD MORNING
-0.3010 <s> GOOGLE </s>
-0.3010 <s> H </s>
-0.3010 <s> HIBERNATE </s>
-0.3010 <s> J </s>
-0.3010 <s> K </s>
-0.3010 <s> L </s>
-0.3010 <s> LEFT </s>
-0.3010 <s> M </s>
-0.3010 <s> N </s>
-0.3010 <s> NEW </s>
-0.3010 <s> NO </s>
-0.3010 <s> NOTEPAD </s>
-0.3010 <s> O </s>
-0.3010 <s> OPEN THE
-0.3010 <s> P </s>
-0.3010 <s> PASTE </s>
-0.3010 <s> PLAY </s>
-0.3010 <s> Q </s>
-0.3010 <s> R </s>
-0.3010 <s> RIGHT </s>
-0.3010 <s> RIGHTCLICK </s>
-0.3010 <s> S </s>
-0.3010 <s> SAVE </s>
-0.3010 <s> SQUARE </s>
-0.3010 <s> STOP </s>
-0.3010 <s> STORM </s>
-0.3010 <s> T </s>
-0.3010 <s> TAB </s>
-0.3010 <s> TERMINAL </s>
-0.3010 <s> U </s>
-0.3010 <s> V </s>
-0.3010 <s> W </s>
-0.3010 <s> WIND </s>
-0.3010 <s> WINDOWS </s>
-0.3010 <s> X </s>
-0.3010 <s> Y </s>
-0.3010 <s> YES </s>
-0.3010 <s> Z </s>
-0.3010 A FULL SYSTEM
-0.3010 A LEVEL 3
-0.3010 A SOUND </s>
-0.3010 ACTIVATE LIGHTS </s>
-0.3010 ACTIVATE SCREENSAVER </s>
-0.3010 ACTIVATE SMALL FAN
-0.3010 ACTIVATE T V
-0.3010 ACTIVATE TELEVISION </s>
-0.3010 ALL RECORDINGS </s>
-0.3010 ALL THE LIGHTS
-0.3010 ALPHA OMEGA THIRTEEN
-0.3010 ANYONE HOME </s>
-0.3010 ARE INSIDE </s>
-0.3010 ARE PRESENT </s>
-0.6021 ARE THERE </s>
-0.6021 ARE THERE IN
-0.3010 AUTHORIZATION ALPHA OMEGA
-0.3010 BAY DOORS HAL
-0.3010 CALL 911 </s>
-0.3010 CALL MY MOTHER
-0.3010 CHECK IN ON
-0.3010 CHECK THE FLOW
-1.0000 COMPUTER ACTIVATE LIGHTS
-1.0000 COMPUTER ACTIVATE SCREENSAVER
-1.0000 COMPUTER ACTIVATE SMALL
-1.0000 COMPUTER ACTIVATE T
-1.0000 COMPUTER ACTIVATE TELEVISION
-0.3010 COMPUTER AUTHORIZATION ALPHA
-0.3010 COMPUTER CALL MY
-0.6021 COMPUTER CHECK IN
-0.6021 COMPUTER CHECK THE
-0.3010 COMPUTER DEACTIVATE VOICE
-0.3010 COMPUTER DESTROY </s>
-0.3010 COMPUTER DO A
-0.3010 COMPUTER HOW MANY
-0.3010 COMPUTER I DON'T
-0.6021 COMPUTER I'M HOME
-0.6021 COMPUTER I'M LEAVING
-0.3010 COMPUTER IDENTIFY ME
-0.3010 COMPUTER INVERSE THE
-0.3010 COMPUTER IS ANYONE
-0.3010 COMPUTER JANEWAY </s>
-0.3010 COMPUTER LOUD </s>
-0.3010 COMPUTER MAKE NOISE
-0.3010 COMPUTER MUTE </s>
-0.3010 COMPUTER PAUSE </s>
-0.3010 COMPUTER PERFORM A
-0.3010 COMPUTER PLAY MUSIC
-0.3010 COMPUTER RED ALERT
-0.3010 COMPUTER RESPOND </s>
-0.3010 COMPUTER SEND OUT
-0.3010 COMPUTER SHOW CAMERAS
-0.3010 COMPUTER SILENCE </s>
-0.3010 COMPUTER SOUND THE
-0.6021 COMPUTER STOP ALARM
-0.6021 COMPUTER STOP ALL
-0.3010 COMPUTER UPLOAD SECURITY
-0.3010 COMPUTER WAKE UP
-0.3010 COMPUTER WHAT IS
-0.3010 COMPUTER WHO IS
-0.3010 DEACTIVATE THIS LIGHT
-0.3010 DEACTIVATE VOICE COMMANDS
-0.3010 DEACTIVE ALL THE
-0.3010 DISTRESS SIGNAL </s>
-0.3010 DO A LEVEL
-0.3010 DON'T RESPOND WELL
-0.3010 DOORS HAL </s>
-1.0000 ELRIC ACTIVATE LIGHTS
-1.0000 ELRIC ACTIVATE SCREENSAVER
-1.0000 ELRIC ACTIVATE SMALL
-1.0000 ELRIC ACTIVATE T
-1.0000 ELRIC ACTIVATE TELEVISION
-0.3010 ELRIC AUTHORIZATION ALPHA
-0.6021 ELRIC CALL 911
-0.6021 ELRIC CALL MY
-0.6021 ELRIC CHECK IN
-0.6021 ELRIC CHECK THE
-0.6021 ELRIC DEACTIVATE THIS
-0.6021 ELRIC DEACTIVATE VOICE
-0.3010 ELRIC DEACTIVE ALL
-0.3010 ELRIC DESTROY </s>
-0.3010 ELRIC DO A
-0.3010 ELRIC HOW MANY
-0.3010 ELRIC I DON'T
-0.6021 ELRIC I'M HOME
-0.6021 ELRIC I'M LEAVING
-0.3010 ELRIC IDENTIFY ME
-0.3010 ELRIC INTRUDER ALERT
-0.3010 ELRIC INVERSE THE
-0.3010 ELRIC IS ANYONE
-0.3010 ELRIC JANEWAY </s>
-0.3010 ELRIC LOUD </s>
-0.3010 ELRIC MAKE NOISE
-0.3010 ELRIC MUTE </s>
-0.3010 ELRIC NOTIFY ADMINISTRATOR
-0.3010 ELRIC PAUSE </s>
-0.3010 ELRIC PERFORM A
-0.6021 ELRIC PLAY A
-0.6021 ELRIC PLAY MUSIC
-0.3010 ELRIC RED ALERT
-0.3010 ELRIC RESPOND </s>
-0.3010 ELRIC SEND OUT
-0.3010 ELRIC SHOW CAMERAS
-0.3010 ELRIC SILENCE </s>
-0.3010 ELRIC SOUND THE
-0.6021 ELRIC STOP ALARM
-0.6021 ELRIC STOP ALL
-0.3010 ELRIC TURN ON
-0.3010 ELRIC UPLOAD SECURITY
-0.3010 ELRIC WAKE UP
-0.3010 ELRIC WHAT IS
-0.3010 ELRIC WHO IS
-0.3010 FLOW OF THE
-0.3010 FOUR SQUARE </s>
-0.3010 FULL SYSTEM CHECK
-0.3010 GOOD MORNING ELRIC
-0.3979 HOW MANY PEOPLE
-1.0000 HOW MANY PERSONS
-0.3010 I DON'T RESPOND
-0.3010 I'M HOME </s>
-0.3010 I'M LEAVING </s>
-0.3010 IDENTIFY ME </s>
-0.3010 IN ON FOUR
-0.3010 IN THE HOUSE
-0.3010 INTRUDER ALERT </s>
-0.3010 INVERSE THE POLARITY
-0.3010 IS ANYONE HOME
-0.3010 IS INSIDE </s>
-0.3010 IS THE STATUS
-0.3010 LEVEL 3 DIAGNOSTICS
-0.3010 MAKE NOISE </s>
-0.3010 MANY PEOPLE ARE
-0.3010 MANY PERSONS ARE
-0.3010 MORNING ELRIC </s>
-0.3010 MY MOTHER </s>
-0.3010 NOTIFY ADMINISTRATOR </s>
-0.6021 OF THE ALARM
-0.6021 OF THE NEUTRINOS
-0.3010 OMEGA THIRTEEN </s>
-0.3010 ON ALL THE
-0.3010 ON FOUR SQUARE
-0.6021 ON THE LIGHT
-0.6021 ON THE LIGHTS
-0.3010 OPEN THE POD
-0.3010 OUT DISTRESS SIGNAL
-0.6021 PEOPLE ARE INSIDE
-0.9031 PEOPLE ARE PRESENT
-0.9031 PEOPLE ARE THERE
-0.3010 PERFORM A FULL
-0.3010 PERSONS ARE THERE
-0.3010 PLAY A SOUND
-0.3010 PLAY MUSIC </s>
-0.3010 POD BAY DOORS
-0.3010 RED ALERT </s>
-0.3010 RESPOND WELL TO
-0.3010 SECURITY FOOTAGE </s>
-0.3010 SEND OUT DISTRESS
-0.3010 SHOW CAMERAS </s>
-0.3010 SMALL FAN </s>
-0.3010 SOUND THE ALARM
-0.3010 STATUS OF THE
-0.3010 STOP ALARM </s>
-0.3010 STOP ALL RECORDINGS
-0.3010 SYSTEM CHECK </s>
-0.3010 T V </s>
-0.3010 THE ALARM </s>
-0.3010 THE FLOW OF
-0.3010 THE HOUSE </s>
-0.3010 THE LIGHT </s>
-0.3010 THE LIGHTS </s>
-0.3010 THE NEUTRINOS </s>
-0.3010 THE POD BAY
-0.3010 THE POLARITY </s>
-0.3010 THE STATUS OF
-0.3010 THERE IN THE
-0.3010 THIS LIGHT </s>
-0.3010 TO THREATS </s>
-0.7782 TURN ON ALL
-0.4771 TURN ON THE
-0.3010 UP COMPUTER </s>
-0.3010 UP STORMWIND </s>
-0.3010 UPLOAD SECURITY FOOTAGE
-0.3010 VOICE COMMANDS </s>
-0.6021 WAKE UP COMPUTER
-0.6021 WAKE UP STORMWIND
-0.3010 WELL TO THREATS
-0.3010 WHAT IS THE
-0.3010 WHO IS INSIDE

\end\
